{"levels":[{"inputs":[0.5996310794324657,0.2602146976680356,0,0,0],"outputs":[0,0,0,0,0,0],"biases":[0.24251092779242336,0.06383508644167421,0.46170017905571076,0.4413906443812712,0.30988531291525667,0.3002525505645649],"weights":[[0.06297480977170028,0.059647515889548926,-0.46391352113560536,-0.29724349646680676,-0.30121911454613604,0.1565128119159129],[0.02264872513007059,0.10034300193886869,-0.15787490726367112,0.2585906336839166,-0.025732375840007038,0.12300293706454508],[-0.17352467927143567,0.2698294928062397,-0.14632270125066632,-0.004034675277624829,-0.19426063953717995,0.4391250218435345],[-0.2840441585460283,-0.039257295865480636,-0.04062797942203946,-0.24996204781969056,-0.08115588604589313,0.36264641816265547],[-0.3755116572218824,-0.16547663561011208,-0.10046116108932472,-0.44559712698132914,0.10292838043787166,0.23149210895910893]]},{"inputs":[0,0,0,0,0,0],"outputs":[1,1,1,0],"biases":[-0.08893907297360508,-0.01276402113375609,-0.1618635702741231,0.11137114220739569],"weights":[[-0.03510593364243832,0.3613814704775138,-0.30074324974449046,-0.029341604042221567],[0.18420753814121693,-0.1549589038034505,-0.08917577233090883,-0.1253515928525157],[0.23828274459271614,-0.19917120897184598,-0.4449908544425085,-0.0023707005550719085],[-0.4227086386429971,0.28470580366251774,0.2982524730976807,-0.550353782819037],[0.039469116689527975,0.3204525768986779,0.35345203712004014,-0.2563440844523009],[-0.38717100352892747,0.30465413064245833,-0.16505528136646616,-0.2895699807404949]]}]}