const bestBrainData = {"levels":[{"inputs":[0,0,0,0,0,0,0,0,0.25575220602177917,0.3962962754849665],"outputs":[1,0,0,0,1,1],"biases":[0.11403346349928138,-0.07297722930709123,0.05715550810665071,0.3478804552026041,-0.13953116156484313,-0.12439267754830703],"weights":[[-0.03771895422329368,0.10812880184331272,0.3074055863003368,-0.18468230359996402,0.2264313665489484,-0.07567465907397507],[0.0703850538961392,-0.21866894617337737,0.20756791879289732,-0.19432797593221435,0.025618737613031753,0.08800482030829987],[0.08952227675431823,0.12314795493631273,0.26926282382789696,0.03649092837086187,-0.4737136131503858,0.24575817420868945],[0.35630525395469614,-0.11877389635210567,-0.16548651161995057,0.24794672389031214,0.2427329653610931,-0.04320223185248841],[-0.11412722083847765,-0.04426575451405748,-0.3399610550679918,-0.05294900270462025,-0.15205856125635486,-0.223129681322199],[-0.05126514901250238,-0.02667942103589555,-0.022688420940856963,-0.2893429128550948,0.22531102058897967,0.16119656116306874],[-0.09969989650398112,0.12338574272053925,-0.16146297734462894,-0.009024909786049098,-0.23566269568101775,0.3236826104765106],[0.1484493818804371,-0.3824083679949412,-0.28096833113652087,-0.09413473365873774,0.28724717658350807,-0.12633366469732654],[0.21948396972567347,-0.3806992425257137,0.19446817574290648,-0.24691314688772054,0.0062679026796884085,-0.3335734970070215],[0.17877107418213428,0.06134331717326619,-0.29304452791031815,0.3237070977557813,0.07956791026531124,0.12916457320945932]]},{"inputs":[1,0,0,0,1,1],"outputs":[1,1,0,0],"biases":[-0.2724922253059784,-0.11186113621794858,0.009929069009768213,0.07609128092913776],"weights":[[0.16114657431482587,0.08947742474211476,-0.007803947472270076,-0.35838180513412643],[-0.0033498767725744227,-0.47254567186694646,0.07808923244377643,0.12269136264219255],[-0.23904232533546313,-0.006319885374335999,0.17461188057875976,-0.32876867872621146],[0.36740183469781845,0.08802267838411777,0.24992316982493096,0.3420096948048171],[0.23534042184290507,-0.18652770938609448,-0.1400398392009763,0.048549412226225136],[-0.00040791807012792447,0.3060316635726089,0.15365022322217325,-0.2063256765370906]]}]}
const bestBrainData2 = {"levels":[{"inputs":[0,0,0,0,0,0,0,0,0.14502190065039633,0.3064763280020628],"outputs":[1,1,0,0,1,1],"biases":[0.052669893634046,-0.061228575985052464,-0.045101930056150444,0.22747585868840395,-0.028583885838682918,-0.14591194666668145],"weights":[[0.007870251387235919,0.13406328915563967,0.2580662672613415,-0.2453582681911394,0.21905824558748208,0.0007068536238789974],[0.0006939938006196855,-0.1864168844631656,0.13096881318466294,-0.10713710957496864,-0.03570394949605519,0.0554870425117935],[0.13922015215033673,0.02774661508017731,0.20925137506831995,0.07873326303752506,-0.3812653251622543,0.24382395894211475],[0.34713631832308445,-0.023532548308944287,-0.19001885983200814,0.13999448124301866,0.3086421085789284,0.004957478672049542],[-0.1536021678483206,-0.019893650026332744,-0.3869173853646774,-0.07003073784957269,-0.054577467758555084,-0.22650739197300307],[-0.04322029031291321,-0.037807243400492435,0.06495768523543151,-0.2150040628471544,0.1935994713887032,0.2426430137099142],[0.000269375127786714,0.20318650734860588,-0.09697407661835229,-0.1075614131244957,-0.2504524214838189,0.30129623820258206],[0.205927784305949,-0.388597560303431,-0.3117997568207203,-0.08326271205696098,0.31895516645122823,-0.1615036750025],[0.2471372513878889,-0.35002612251363996,0.08110527115189303,-0.13182906354144375,-0.02578334705520257,-0.39584296328071905],[0.2459019858391564,-0.03413218069871787,-0.20563917998196524,0.2825879210130509,0.06257125929878249,0.21449120913494768]]},{"inputs":[1,1,0,0,1,1],"outputs":[1,0,1,0],"biases":[-0.1486681849736109,-0.1176451939932463,0.05186800855989483,0.006972041252931466],"weights":[[0.22625965755758645,0.15606112231664693,-0.022297638281914087,-0.37462955607691883],[-0.007632576113093742,-0.47846592255191805,0.07681666869241037,0.08417124240111253],[-0.24223401754663584,-0.0473261451092348,0.16728147001805863,-0.3659254832941443],[0.33292737057958366,0.013692936469692496,0.25114976926824273,0.2615966907718508],[0.16721501574133796,-0.09003752177060215,-0.04372927241898854,0.011736185835996095],[0.038480273980585664,0.2683835754310957,0.10492761810532489,-0.27701178395204273]]}]}
